<?xml version="1.0"?>
<opencv_storage>
<cascade>
  <stageType>BOOST</stageType>
  <featureType>LBP</featureType>
  <height>100</height>
  <width>100</width>
  <stageParams>
    <boostType>GAB</boostType>
    <minHitRate>9.9900001287460327e-01</minHitRate>
    <maxFalseAlarm>4.0000000596046448e-01</maxFalseAlarm>
    <weightTrimRate>9.4999999999999996e-01</weightTrimRate>
    <maxDepth>1</maxDepth>
    <maxWeakCount>100</maxWeakCount></stageParams>
  <featureParams>
    <maxCatCount>256</maxCatCount>
    <featSize>1</featSize></featureParams>
  <stageNum>4</stageNum>
  <stages>
    <!-- stage 0 -->
    <_>
      <maxWeakCount>2</maxWeakCount>
      <stageThreshold>-4.4296318292617798e-01</stageThreshold>
      <weakClassifiers>
        <_>
          <internalNodes>
            0 -1 3 -539230209 -2362885 -539894787 -10849 -71566337 -5909
            -359546881 -1</internalNodes>
          <leafValues>
            -9.9952369928359985e-01 5.5555558204650879e-01</leafValues></_>
        <_>
          <internalNodes>
            0 -1 2 -10485761 -2105377 -787488801 -2099329 -101712897
            -68161089 -537920513 -1</internalNodes>
          <leafValues>
            -9.9851870536804199e-01 8.7636327743530273e-01</leafValues></_></weakClassifiers></_>
    <!-- stage 1 -->
    <_>
      <maxWeakCount>2</maxWeakCount>
      <stageThreshold>0.</stageThreshold>
      <weakClassifiers>
        <_>
          <internalNodes>
            0 -1 4 -1537 -178974449 -770604713 -652783161 -91227393
            -73152237 -73872677 -1</internalNodes>
          <leafValues>
            -9.9952393770217896e-01 1.</leafValues></_>
        <_>
          <internalNodes>
            0 -1 1 -672137217 -71044661 -2147229687 -3415613 -972307793
            -1711062901 -653542929 -1</internalNodes>
          <leafValues>
            -1. 1.</leafValues></_></weakClassifiers></_>
    <!-- stage 2 -->
    <_>
      <maxWeakCount>2</maxWeakCount>
      <stageThreshold>0.</stageThreshold>
      <weakClassifiers>
        <_>
          <internalNodes>
            0 -1 5 -77596673 -11595813 -284444199 -674504357 -49293057
            -615841654 -16005633 -6295585</internalNodes>
          <leafValues>
            -9.9952393770217896e-01 1.</leafValues></_>
        <_>
          <internalNodes>
            0 -1 0 -539495937 -11142369 -104777355 -6311653 -938898433
            -72712021 -393363973 -4214357</internalNodes>
          <leafValues>
            -1. 1.</leafValues></_></weakClassifiers></_>
    <!-- stage 3 -->
    <_>
      <maxWeakCount>1</maxWeakCount>
      <stageThreshold>1.</stageThreshold>
      <weakClassifiers>
        <_>
          <internalNodes>
            0 -1 6 -143655969 1368768707 -2147356137 -224935677
            -1602227973 -1025555895 -958746385 -135268609</internalNodes>
          <leafValues>
            -1. 1.</leafValues></_></weakClassifiers></_></stages>
  <features>
    <_>
      <rect>
        0 0 3 1</rect></_>
    <_>
      <rect>
        0 0 3 10</rect></_>
    <_>
      <rect>
        3 39 16 19</rect></_>
    <_>
      <rect>
        18 11 18 5</rect></_>
    <_>
      <rect>
        51 5 15 12</rect></_>
    <_>
      <rect>
        60 7 10 16</rect></_>
    <_>
      <rect>
        66 17 8 17</rect></_></features></cascade>
</opencv_storage>
